{"viewRegion":{"chrNumber":"chr7","genomeStart":1232004303,"totalLoadedStart":27941226,"totalLoadedStop":28244934,"length":303708,"start":28042462,"stop":28143698,"chrLength":159345973,"ratio":null},"renderedArcData":[],"renderedFlagData":[{"locus":{"start":28042469,"end":28042471,"chr":"chr7"},"strand":"","name":"","value":4.184100151062012},{"locus":{"start":28042496,"end":28042498,"chr":"chr7"},"strand":"","name":"","value":0.822700023651123},{"locus":{"start":28042840,"end":28042842,"chr":"chr7"},"strand":"","name":"","value":0.41130000352859497},{"locus":{"start":28042888,"end":28042890,"chr":"chr7"},"strand":"","name":"","value":2.440700054168701},{"locus":{"start":28043438,"end":28043440,"chr":"chr7"},"strand":"","name":"","value":8.43220043182373},{"locus":{"start":28043441,"end":28043443,"chr":"chr7"},"strand":"","name":"","value":6.276199817657471},{"locus":{"start":28043485,"end":28043487,"chr":"chr7"},"strand":"","name":"","value":3.9769999980926514},{"locus":{"start":28043562,"end":28043564,"chr":"chr7"},"strand":"","name":"","value":5.170100212097168},{"locus":{"start":28043607,"end":28043609,"chr":"chr7"},"strand":"","name":"","value":5.141600131988525},{"locus":{"start":28043637,"end":28043639,"chr":"chr7"},"strand":"","name":"","value":0.6973999738693237},{"locus":{"start":28043660,"end":28043662,"chr":"chr7"},"strand":"","name":"","value":2.092099905014038},{"locus":{"start":28043689,"end":28043691,"chr":"chr7"},"strand":"","name":"","value":0.822700023651123},{"locus":{"start":28044063,"end":28044065,"chr":"chr7"},"strand":"","name":"","value":0.6973999738693237},{"locus":{"start":28044114,"end":28044116,"chr":"chr7"},"strand":"","name":"","value":7.670899868011475},{"locus":{"start":28044290,"end":28044292,"chr":"chr7"},"strand":"","name":"","value":9.065600395202637},{"locus":{"start":28044526,"end":28044528,"chr":"chr7"},"strand":"","name":"","value":0.41130000352859497},{"locus":{"start":28044726,"end":28044728,"chr":"chr7"},"strand":"","name":"","value":1.394700050354004},{"locus":{"start":28044787,"end":28044789,"chr":"chr7"},"strand":"","name":"","value":0.41130000352859497},{"locus":{"start":28045941,"end":28045943,"chr":"chr7"},"strand":"","name":"","value":0.359499990940094},{"locus":{"start":28056470,"end":28056472,"chr":"chr7"},"strand":"","name":"","value":0.20569999516010284},{"locus":{"start":28058863,"end":28058865,"chr":"chr7"},"strand":"","name":"","value":0.20569999516010284},{"locus":{"start":28058912,"end":28058914,"chr":"chr7"},"strand":"","name":"","value":2.386199951171875},{"locus":{"start":28059002,"end":28059004,"chr":"chr7"},"strand":"","name":"","value":3.9769999980926514},{"locus":{"start":28059004,"end":28059006,"chr":"chr7"},"strand":"","name":"","value":2.1338999271392822},{"locus":{"start":28059062,"end":28059064,"chr":"chr7"},"strand":"","name":"","value":0.41130000352859497},{"locus":{"start":28059138,"end":28059140,"chr":"chr7"},"strand":"","name":"","value":4.9791998863220215},{"locus":{"start":28059188,"end":28059190,"chr":"chr7"},"strand":"","name":"","value":0.7954000234603882},{"locus":{"start":28060547,"end":28060549,"chr":"chr7"},"strand":"","name":"","value":0.6973999738693237},{"locus":{"start":28060689,"end":28060691,"chr":"chr7"},"strand":"","name":"","value":0.34869998693466187},{"locus":{"start":28061397,"end":28061399,"chr":"chr7"},"strand":"","name":"","value":0.34869998693466187},{"locus":{"start":28061697,"end":28061699,"chr":"chr7"},"strand":"","name":"","value":0.7190999984741211},{"locus":{"start":28061875,"end":28061877,"chr":"chr7"},"strand":"","name":"","value":0.7190999984741211},{"locus":{"start":28063237,"end":28063239,"chr":"chr7"},"strand":"","name":"","value":0.359499990940094},{"locus":{"start":28063739,"end":28063741,"chr":"chr7"},"strand":"","name":"","value":0.359499990940094},{"locus":{"start":28066925,"end":28066927,"chr":"chr7"},"strand":"","name":"","value":0.34869998693466187},{"locus":{"start":28069755,"end":28069757,"chr":"chr7"},"strand":"","name":"","value":2.092099905014038},{"locus":{"start":28069852,"end":28069854,"chr":"chr7"},"strand":"","name":"","value":13.249699592590332},{"locus":{"start":28069954,"end":28069956,"chr":"chr7"},"strand":"","name":"","value":18.828500747680664},{"locus":{"start":28069983,"end":28069985,"chr":"chr7"},"strand":"","name":"","value":5.170100212097168},{"locus":{"start":28070043,"end":28070045,"chr":"chr7"},"strand":"","name":"","value":9.065600395202637},{"locus":{"start":28070079,"end":28070081,"chr":"chr7"},"strand":"","name":"","value":0.41130000352859497},{"locus":{"start":28070122,"end":28070124,"chr":"chr7"},"strand":"","name":"","value":9.942500114440918},{"locus":{"start":28070165,"end":28070167,"chr":"chr7"},"strand":"","name":"","value":2.2623000144958496},{"locus":{"start":28070198,"end":28070200,"chr":"chr7"},"strand":"","name":"","value":3.9769999980926514},{"locus":{"start":28070201,"end":28070203,"chr":"chr7"},"strand":"","name":"","value":2.339600086212158},{"locus":{"start":28070203,"end":28070205,"chr":"chr7"},"strand":"","name":"","value":13.514800071716309},{"locus":{"start":28070421,"end":28070423,"chr":"chr7"},"strand":"","name":"","value":17.071399688720703},{"locus":{"start":28070597,"end":28070599,"chr":"chr7"},"strand":"","name":"","value":4.9359002113342285},{"locus":{"start":28070753,"end":28070755,"chr":"chr7"},"strand":"","name":"","value":7.609600067138672},{"locus":{"start":28070793,"end":28070795,"chr":"chr7"},"strand":"","name":"","value":0.20569999516010284},{"locus":{"start":28070898,"end":28070900,"chr":"chr7"},"strand":"","name":"","value":4.673999786376953},{"locus":{"start":28071095,"end":28071097,"chr":"chr7"},"strand":"","name":"","value":6.471700191497803},{"locus":{"start":28071642,"end":28071644,"chr":"chr7"},"strand":"","name":"","value":0.359499990940094},{"locus":{"start":28071753,"end":28071755,"chr":"chr7"},"strand":"","name":"","value":0.359499990940094},{"locus":{"start":28072003,"end":28072005,"chr":"chr7"},"strand":"","name":"","value":2.5167999267578125},{"locus":{"start":28076880,"end":28076882,"chr":"chr7"},"strand":"","name":"","value":0.7190999984741211},{"locus":{"start":28077243,"end":28077245,"chr":"chr7"},"strand":"","name":"","value":2.5167999267578125},{"locus":{"start":28078580,"end":28078582,"chr":"chr7"},"strand":"","name":"","value":0.7190999984741211},{"locus":{"start":28079014,"end":28079016,"chr":"chr7"},"strand":"","name":"","value":0.20569999516010284},{"locus":{"start":28083578,"end":28083580,"chr":"chr7"},"strand":"","name":"","value":0.41130000352859497},{"locus":{"start":28083764,"end":28083766,"chr":"chr7"},"strand":"","name":"","value":0.41130000352859497},{"locus":{"start":28087381,"end":28087383,"chr":"chr7"},"strand":"","name":"","value":1.5908000469207764},{"locus":{"start":28087459,"end":28087461,"chr":"chr7"},"strand":"","name":"","value":2.386199951171875},{"locus":{"start":28090487,"end":28090489,"chr":"chr7"},"strand":"","name":"","value":0.20569999516010284},{"locus":{"start":28091165,"end":28091167,"chr":"chr7"},"strand":"","name":"","value":0.822700023651123},{"locus":{"start":28091299,"end":28091301,"chr":"chr7"},"strand":"","name":"","value":0.41130000352859497},{"locus":{"start":28093930,"end":28093932,"chr":"chr7"},"strand":"","name":"","value":8.637900352478027},{"locus":{"start":28094040,"end":28094042,"chr":"chr7"},"strand":"","name":"","value":6.786900043487549},{"locus":{"start":28094119,"end":28094121,"chr":"chr7"},"strand":"","name":"","value":4.11329984664917},{"locus":{"start":28094226,"end":28094228,"chr":"chr7"},"strand":"","name":"","value":11.517200469970703},{"locus":{"start":28094388,"end":28094390,"chr":"chr7"},"strand":"","name":"","value":0.6169999837875366},{"locus":{"start":28094540,"end":28094542,"chr":"chr7"},"strand":"","name":"","value":0.822700023651123},{"locus":{"start":28095240,"end":28095242,"chr":"chr7"},"strand":"","name":"","value":1.0460000038146973},{"locus":{"start":28095404,"end":28095406,"chr":"chr7"},"strand":"","name":"","value":0.20569999516010284},{"locus":{"start":28095434,"end":28095436,"chr":"chr7"},"strand":"","name":"","value":6.973499774932861},{"locus":{"start":28095467,"end":28095469,"chr":"chr7"},"strand":"","name":"","value":15.819700241088867},{"locus":{"start":28095552,"end":28095554,"chr":"chr7"},"strand":"","name":"","value":8.368200302124023},{"locus":{"start":28095568,"end":28095570,"chr":"chr7"},"strand":"","name":"","value":1.0283000469207764},{"locus":{"start":28095575,"end":28095577,"chr":"chr7"},"strand":"","name":"","value":1.0283000469207764},{"locus":{"start":28095618,"end":28095620,"chr":"chr7"},"strand":"","name":"","value":8.269399642944336},{"locus":{"start":28095623,"end":28095625,"chr":"chr7"},"strand":"","name":"","value":2.1572000980377197},{"locus":{"start":28095659,"end":28095661,"chr":"chr7"},"strand":"","name":"","value":3.7019999027252197},{"locus":{"start":28095685,"end":28095687,"chr":"chr7"},"strand":"","name":"","value":20.49370002746582},{"locus":{"start":28095801,"end":28095803,"chr":"chr7"},"strand":"","name":"","value":12.943400382995605},{"locus":{"start":28096264,"end":28096266,"chr":"chr7"},"strand":"","name":"","value":0.822700023651123},{"locus":{"start":28096457,"end":28096459,"chr":"chr7"},"strand":"","name":"","value":0.822700023651123},{"locus":{"start":28096494,"end":28096496,"chr":"chr7"},"strand":"","name":"","value":1.797700047492981},{"locus":{"start":28096647,"end":28096649,"chr":"chr7"},"strand":"","name":"","value":1.4381999969482422},{"locus":{"start":28096793,"end":28096795,"chr":"chr7"},"strand":"","name":"","value":0.6973999738693237},{"locus":{"start":28101124,"end":28101126,"chr":"chr7"},"strand":"","name":"","value":0.20569999516010284},{"locus":{"start":28106996,"end":28106998,"chr":"chr7"},"strand":"","name":"","value":2.6735999584198},{"locus":{"start":28107087,"end":28107089,"chr":"chr7"},"strand":"","name":"","value":0.20569999516010284},{"locus":{"start":28107123,"end":28107125,"chr":"chr7"},"strand":"","name":"","value":0.3977000117301941},{"locus":{"start":28107133,"end":28107135,"chr":"chr7"},"strand":"","name":"","value":1.0283000469207764},{"locus":{"start":28107336,"end":28107338,"chr":"chr7"},"strand":"","name":"","value":0.41130000352859497},{"locus":{"start":28107391,"end":28107393,"chr":"chr7"},"strand":"","name":"","value":1.2339999675750732},{"locus":{"start":28107589,"end":28107591,"chr":"chr7"},"strand":"","name":"","value":3.290600061416626},{"locus":{"start":28107672,"end":28107674,"chr":"chr7"},"strand":"","name":"","value":1.0283000469207764},{"locus":{"start":28110103,"end":28110105,"chr":"chr7"},"strand":"","name":"","value":4.9791998863220215},{"locus":{"start":28110217,"end":28110219,"chr":"chr7"},"strand":"","name":"","value":0.34869998693466187},{"locus":{"start":28110238,"end":28110240,"chr":"chr7"},"strand":"","name":"","value":1.3282999992370605},{"locus":{"start":28110310,"end":28110312,"chr":"chr7"},"strand":"","name":"","value":0.34869998693466187},{"locus":{"start":28110327,"end":28110329,"chr":"chr7"},"strand":"","name":"","value":0.822700023651123},{"locus":{"start":28110732,"end":28110734,"chr":"chr7"},"strand":"","name":"","value":3.1380999088287354},{"locus":{"start":28110880,"end":28110882,"chr":"chr7"},"strand":"","name":"","value":3.7019999027252197},{"locus":{"start":28110916,"end":28110918,"chr":"chr7"},"strand":"","name":"","value":0.20569999516010284},{"locus":{"start":28110979,"end":28110981,"chr":"chr7"},"strand":"","name":"","value":2.092099905014038},{"locus":{"start":28110999,"end":28111001,"chr":"chr7"},"strand":"","name":"","value":3.0850000381469727},{"locus":{"start":28111079,"end":28111081,"chr":"chr7"},"strand":"","name":"","value":5.758600234985352},{"locus":{"start":28111232,"end":28111234,"chr":"chr7"},"strand":"","name":"","value":7.403900146484375},{"locus":{"start":28111406,"end":28111408,"chr":"chr7"},"strand":"","name":"","value":1.4395999908447266},{"locus":{"start":28111408,"end":28111410,"chr":"chr7"},"strand":"","name":"","value":3.55649995803833},{"locus":{"start":28111440,"end":28111442,"chr":"chr7"},"strand":"","name":"","value":0.6169999837875366},{"locus":{"start":28111522,"end":28111524,"chr":"chr7"},"strand":"","name":"","value":4.9791998863220215},{"locus":{"start":28111612,"end":28111614,"chr":"chr7"},"strand":"","name":"","value":0.20569999516010284},{"locus":{"start":28111684,"end":28111686,"chr":"chr7"},"strand":"","name":"","value":0.6169999837875366},{"locus":{"start":28113133,"end":28113135,"chr":"chr7"},"strand":"","name":"","value":0.359499990940094},{"locus":{"start":28113360,"end":28113362,"chr":"chr7"},"strand":"","name":"","value":1.4381999969482422},{"locus":{"start":28113772,"end":28113774,"chr":"chr7"},"strand":"","name":"","value":0.20569999516010284},{"locus":{"start":28113810,"end":28113812,"chr":"chr7"},"strand":"","name":"","value":0.359499990940094},{"locus":{"start":28113818,"end":28113820,"chr":"chr7"},"strand":"","name":"","value":0.6169999837875366},{"locus":{"start":28113976,"end":28113978,"chr":"chr7"},"strand":"","name":"","value":2.440700054168701},{"locus":{"start":28114016,"end":28114018,"chr":"chr7"},"strand":"","name":"","value":1.743399977684021},{"locus":{"start":28114085,"end":28114087,"chr":"chr7"},"strand":"","name":"","value":2.0566000938415527},{"locus":{"start":28114352,"end":28114354,"chr":"chr7"},"strand":"","name":"","value":14.9931001663208},{"locus":{"start":28114407,"end":28114409,"chr":"chr7"},"strand":"","name":"","value":2.2623000144958496},{"locus":{"start":28114409,"end":28114411,"chr":"chr7"},"strand":"","name":"","value":36.98609924316406},{"locus":{"start":28114474,"end":28114476,"chr":"chr7"},"strand":"","name":"","value":23.361299514770508},{"locus":{"start":28114523,"end":28114525,"chr":"chr7"},"strand":"","name":"","value":18.294200897216797},{"locus":{"start":28114525,"end":28114527,"chr":"chr7"},"strand":"","name":"","value":0.7954000234603882},{"locus":{"start":28114575,"end":28114577,"chr":"chr7"},"strand":"","name":"","value":5.578800201416016},{"locus":{"start":28114597,"end":28114599,"chr":"chr7"},"strand":"","name":"","value":3.496299982070923},{"locus":{"start":28114627,"end":28114629,"chr":"chr7"},"strand":"","name":"","value":7.322199821472168},{"locus":{"start":28114688,"end":28114690,"chr":"chr7"},"strand":"","name":"","value":0.41130000352859497},{"locus":{"start":28114709,"end":28114711,"chr":"chr7"},"strand":"","name":"","value":1.0283000469207764},{"locus":{"start":28115110,"end":28115112,"chr":"chr7"},"strand":"","name":"","value":0.20569999516010284},{"locus":{"start":28115159,"end":28115161,"chr":"chr7"},"strand":"","name":"","value":0.20569999516010284},{"locus":{"start":28115192,"end":28115194,"chr":"chr7"},"strand":"","name":"","value":0.822700023651123},{"locus":{"start":28115564,"end":28115566,"chr":"chr7"},"strand":"","name":"","value":12.751199722290039},{"locus":{"start":28115648,"end":28115650,"chr":"chr7"},"strand":"","name":"","value":0.7113000154495239},{"locus":{"start":28115650,"end":28115652,"chr":"chr7"},"strand":"","name":"","value":2.386199951171875},{"locus":{"start":28115652,"end":28115654,"chr":"chr7"},"strand":"","name":"","value":1.4226000308990479},{"locus":{"start":28115669,"end":28115671,"chr":"chr7"},"strand":"","name":"","value":18.50979995727539},{"locus":{"start":28115753,"end":28115755,"chr":"chr7"},"strand":"","name":"","value":6.3755998611450195},{"locus":{"start":28115773,"end":28115775,"chr":"chr7"},"strand":"","name":"","value":10.28320026397705},{"locus":{"start":28115884,"end":28115886,"chr":"chr7"},"strand":"","name":"","value":14.60219955444336},{"locus":{"start":28115949,"end":28115951,"chr":"chr7"},"strand":"","name":"","value":0.20569999516010284},{"locus":{"start":28116016,"end":28116018,"chr":"chr7"},"strand":"","name":"","value":5.567800045013428},{"locus":{"start":28116027,"end":28116029,"chr":"chr7"},"strand":"","name":"","value":1.4395999908447266},{"locus":{"start":28116065,"end":28116067,"chr":"chr7"},"strand":"","name":"","value":7.322199821472168},{"locus":{"start":28116096,"end":28116098,"chr":"chr7"},"strand":"","name":"","value":6.401800155639648},{"locus":{"start":28116098,"end":28116100,"chr":"chr7"},"strand":"","name":"","value":1.5908000469207764},{"locus":{"start":28116217,"end":28116219,"chr":"chr7"},"strand":"","name":"","value":2.4679999351501465},{"locus":{"start":28116224,"end":28116226,"chr":"chr7"},"strand":"","name":"","value":7.322199821472168},{"locus":{"start":28116265,"end":28116267,"chr":"chr7"},"strand":"","name":"","value":7.670899868011475},{"locus":{"start":28116269,"end":28116271,"chr":"chr7"},"strand":"","name":"","value":0.359499990940094},{"locus":{"start":28116365,"end":28116367,"chr":"chr7"},"strand":"","name":"","value":12.203700065612793},{"locus":{"start":28116646,"end":28116648,"chr":"chr7"},"strand":"","name":"","value":1.645300030708313},{"locus":{"start":28116710,"end":28116712,"chr":"chr7"},"strand":"","name":"","value":24.44860076904297},{"locus":{"start":28116729,"end":28116731,"chr":"chr7"},"strand":"","name":"","value":6.992599964141846},{"locus":{"start":28116863,"end":28116865,"chr":"chr7"},"strand":"","name":"","value":23.72949981689453},{"locus":{"start":28116952,"end":28116954,"chr":"chr7"},"strand":"","name":"","value":4.730299949645996},{"locus":{"start":28116988,"end":28116990,"chr":"chr7"},"strand":"","name":"","value":2.783900022506714},{"locus":{"start":28117098,"end":28117100,"chr":"chr7"},"strand":"","name":"","value":1.394700050354004},{"locus":{"start":28117239,"end":28117241,"chr":"chr7"},"strand":"","name":"","value":0.359499990940094},{"locus":{"start":28117422,"end":28117424,"chr":"chr7"},"strand":"","name":"","value":13.368200302124023},{"locus":{"start":28117478,"end":28117480,"chr":"chr7"},"strand":"","name":"","value":11.930999755859375},{"locus":{"start":28117507,"end":28117509,"chr":"chr7"},"strand":"","name":"","value":3.486799955368042},{"locus":{"start":28117540,"end":28117542,"chr":"chr7"},"strand":"","name":"","value":12.134200096130371},{"locus":{"start":28117575,"end":28117577,"chr":"chr7"},"strand":"","name":"","value":0.822700023651123},{"locus":{"start":28117638,"end":28117640,"chr":"chr7"},"strand":"","name":"","value":9.5447998046875},{"locus":{"start":28117662,"end":28117664,"chr":"chr7"},"strand":"","name":"","value":23.01259994506836},{"locus":{"start":28117737,"end":28117739,"chr":"chr7"},"strand":"","name":"","value":5.567800045013428},{"locus":{"start":28117797,"end":28117799,"chr":"chr7"},"strand":"","name":"","value":0.3977000117301941},{"locus":{"start":28117804,"end":28117806,"chr":"chr7"},"strand":"","name":"","value":13.946999549865723},{"locus":{"start":28117827,"end":28117829,"chr":"chr7"},"strand":"","name":"","value":3.5792999267578125},{"locus":{"start":28117866,"end":28117868,"chr":"chr7"},"strand":"","name":"","value":2.876300096511841},{"locus":{"start":28117874,"end":28117876,"chr":"chr7"},"strand":"","name":"","value":1.645300030708313},{"locus":{"start":28117927,"end":28117929,"chr":"chr7"},"strand":"","name":"","value":0.41130000352859497},{"locus":{"start":28118156,"end":28118158,"chr":"chr7"},"strand":"","name":"","value":2.876300096511841},{"locus":{"start":28118202,"end":28118204,"chr":"chr7"},"strand":"","name":"","value":5.170100212097168},{"locus":{"start":28118364,"end":28118366,"chr":"chr7"},"strand":"","name":"","value":0.822700023651123},{"locus":{"start":28118376,"end":28118378,"chr":"chr7"},"strand":"","name":"","value":7.158599853515625},{"locus":{"start":28118448,"end":28118450,"chr":"chr7"},"strand":"","name":"","value":0.7954000234603882},{"locus":{"start":28118523,"end":28118525,"chr":"chr7"},"strand":"","name":"","value":1.4226000308990479},{"locus":{"start":28118525,"end":28118527,"chr":"chr7"},"strand":"","name":"","value":3.55649995803833},{"locus":{"start":28118608,"end":28118610,"chr":"chr7"},"strand":"","name":"","value":2.8452000617980957},{"locus":{"start":28118772,"end":28118774,"chr":"chr7"},"strand":"","name":"","value":1.2339999675750732},{"locus":{"start":28118847,"end":28118849,"chr":"chr7"},"strand":"","name":"","value":0.7954000234603882},{"locus":{"start":28118925,"end":28118927,"chr":"chr7"},"strand":"","name":"","value":0.822700023651123},{"locus":{"start":28118990,"end":28118992,"chr":"chr7"},"strand":"","name":"","value":2.2623000144958496},{"locus":{"start":28119191,"end":28119193,"chr":"chr7"},"strand":"","name":"","value":4.37470006942749},{"locus":{"start":28119270,"end":28119272,"chr":"chr7"},"strand":"","name":"","value":4.9359002113342285},{"locus":{"start":28119409,"end":28119411,"chr":"chr7"},"strand":"","name":"","value":7.322199821472168},{"locus":{"start":28119483,"end":28119485,"chr":"chr7"},"strand":"","name":"","value":2.4679999351501465},{"locus":{"start":28119505,"end":28119507,"chr":"chr7"},"strand":"","name":"","value":11.157600402832031},{"locus":{"start":28119514,"end":28119516,"chr":"chr7"},"strand":"","name":"","value":11.930999755859375},{"locus":{"start":28119522,"end":28119524,"chr":"chr7"},"strand":"","name":"","value":5.5528998374938965},{"locus":{"start":28119604,"end":28119606,"chr":"chr7"},"strand":"","name":"","value":11.50629997253418},{"locus":{"start":28119620,"end":28119622,"chr":"chr7"},"strand":"","name":"","value":0.6973999738693237},{"locus":{"start":28119642,"end":28119644,"chr":"chr7"},"strand":"","name":"","value":20.680400848388672},{"locus":{"start":28119689,"end":28119691,"chr":"chr7"},"strand":"","name":"","value":10.46030044555664},{"locus":{"start":28119715,"end":28119717,"chr":"chr7"},"strand":"","name":"","value":12.545499801635742},{"locus":{"start":28119764,"end":28119766,"chr":"chr7"},"strand":"","name":"","value":0.20569999516010284},{"locus":{"start":28119804,"end":28119806,"chr":"chr7"},"strand":"","name":"","value":12.552300453186035},{"locus":{"start":28119842,"end":28119844,"chr":"chr7"},"strand":"","name":"","value":5.964300155639648},{"locus":{"start":28119876,"end":28119878,"chr":"chr7"},"strand":"","name":"","value":9.5447998046875},{"locus":{"start":28119929,"end":28119931,"chr":"chr7"},"strand":"","name":"","value":2.4679999351501465},{"locus":{"start":28120463,"end":28120465,"chr":"chr7"},"strand":"","name":"","value":0.20569999516010284},{"locus":{"start":28120682,"end":28120684,"chr":"chr7"},"strand":"","name":"","value":0.20569999516010284},{"locus":{"start":28121043,"end":28121045,"chr":"chr7"},"strand":"","name":"","value":2.2623000144958496},{"locus":{"start":28121104,"end":28121106,"chr":"chr7"},"strand":"","name":"","value":4.37470006942749},{"locus":{"start":28121125,"end":28121127,"chr":"chr7"},"strand":"","name":"","value":0.6169999837875366},{"locus":{"start":28121138,"end":28121140,"chr":"chr7"},"strand":"","name":"","value":0.6169999837875366},{"locus":{"start":28121237,"end":28121239,"chr":"chr7"},"strand":"","name":"","value":16.453100204467773},{"locus":{"start":28121316,"end":28121318,"chr":"chr7"},"strand":"","name":"","value":12.203700065612793},{"locus":{"start":28121347,"end":28121349,"chr":"chr7"},"strand":"","name":"","value":8.843600273132324},{"locus":{"start":28121349,"end":28121351,"chr":"chr7"},"strand":"","name":"","value":44.10110092163086},{"locus":{"start":28121360,"end":28121362,"chr":"chr7"},"strand":"","name":"","value":2.2623000144958496},{"locus":{"start":28121446,"end":28121448,"chr":"chr7"},"strand":"","name":"","value":46.991798400878906},{"locus":{"start":28121448,"end":28121450,"chr":"chr7"},"strand":"","name":"","value":7.113100051879883},{"locus":{"start":28121504,"end":28121506,"chr":"chr7"},"strand":"","name":"","value":16.736499786376953},{"locus":{"start":28121539,"end":28121541,"chr":"chr7"},"strand":"","name":"","value":15.510299682617188},{"locus":{"start":28121594,"end":28121596,"chr":"chr7"},"strand":"","name":"","value":1.4395999908447266},{"locus":{"start":28121633,"end":28121635,"chr":"chr7"},"strand":"","name":"","value":10.111599922180176},{"locus":{"start":28121636,"end":28121638,"chr":"chr7"},"strand":"","name":"","value":8.351699829101562},{"locus":{"start":28121638,"end":28121640,"chr":"chr7"},"strand":"","name":"","value":18.493999481201172},{"locus":{"start":28121687,"end":28121689,"chr":"chr7"},"strand":"","name":"","value":1.0283000469207764},{"locus":{"start":28121775,"end":28121777,"chr":"chr7"},"strand":"","name":"","value":5.141600131988525},{"locus":{"start":28121781,"end":28121783,"chr":"chr7"},"strand":"","name":"","value":19.91659927368164},{"locus":{"start":28121860,"end":28121862,"chr":"chr7"},"strand":"","name":"","value":6.276199817657471},{"locus":{"start":28122167,"end":28122169,"chr":"chr7"},"strand":"","name":"","value":2.092099905014038},{"locus":{"start":28122248,"end":28122250,"chr":"chr7"},"strand":"","name":"","value":3.7019999027252197},{"locus":{"start":28122264,"end":28122266,"chr":"chr7"},"strand":"","name":"","value":6.760900020599365},{"locus":{"start":28122447,"end":28122449,"chr":"chr7"},"strand":"","name":"","value":6.276199817657471},{"locus":{"start":28122564,"end":28122566,"chr":"chr7"},"strand":"","name":"","value":2.2623000144958496},{"locus":{"start":28122578,"end":28122580,"chr":"chr7"},"strand":"","name":"","value":0.34869998693466187},{"locus":{"start":28122581,"end":28122583,"chr":"chr7"},"strand":"","name":"","value":13.52180004119873},{"locus":{"start":28122658,"end":28122660,"chr":"chr7"},"strand":"","name":"","value":3.496299982070923},{"locus":{"start":28122671,"end":28122673,"chr":"chr7"},"strand":"","name":"","value":0.41130000352859497},{"locus":{"start":28122732,"end":28122734,"chr":"chr7"},"strand":"","name":"","value":1.0283000469207764},{"locus":{"start":28122758,"end":28122760,"chr":"chr7"},"strand":"","name":"","value":7.158599853515625},{"locus":{"start":28122814,"end":28122816,"chr":"chr7"},"strand":"","name":"","value":6.973499774932861},{"locus":{"start":28122818,"end":28122820,"chr":"chr7"},"strand":"","name":"","value":0.6169999837875366},{"locus":{"start":28123018,"end":28123020,"chr":"chr7"},"strand":"","name":"","value":3.595400094985962},{"locus":{"start":28123053,"end":28123055,"chr":"chr7"},"strand":"","name":"","value":1.394700050354004},{"locus":{"start":28123101,"end":28123103,"chr":"chr7"},"strand":"","name":"","value":3.954900026321411},{"locus":{"start":28124763,"end":28124765,"chr":"chr7"},"strand":"","name":"","value":2.092099905014038},{"locus":{"start":28124859,"end":28124861,"chr":"chr7"},"strand":"","name":"","value":1.394700050354004},{"locus":{"start":28127415,"end":28127417,"chr":"chr7"},"strand":"","name":"","value":0.20569999516010284},{"locus":{"start":28127773,"end":28127775,"chr":"chr7"},"strand":"","name":"","value":0.6169999837875366},{"locus":{"start":28129983,"end":28129985,"chr":"chr7"},"strand":"","name":"","value":0.34869998693466187},{"locus":{"start":28130240,"end":28130242,"chr":"chr7"},"strand":"","name":"","value":0.3977000117301941},{"locus":{"start":28130304,"end":28130306,"chr":"chr7"},"strand":"","name":"","value":0.20569999516010284},{"locus":{"start":28130420,"end":28130422,"chr":"chr7"},"strand":"","name":"","value":0.20569999516010284},{"locus":{"start":28130520,"end":28130522,"chr":"chr7"},"strand":"","name":"","value":0.822700023651123},{"locus":{"start":28130646,"end":28130648,"chr":"chr7"},"strand":"","name":"","value":1.4381999969482422},{"locus":{"start":28130863,"end":28130865,"chr":"chr7"},"strand":"","name":"","value":4.673999786376953},{"locus":{"start":28139426,"end":28139428,"chr":"chr7"},"strand":"","name":"","value":0.20569999516010284},{"locus":{"start":28139699,"end":28139701,"chr":"chr7"},"strand":"","name":"","value":0.41130000352859497},{"locus":{"start":28140253,"end":28140255,"chr":"chr7"},"strand":"","name":"","value":2.6735999584198},{"locus":{"start":28140292,"end":28140294,"chr":"chr7"},"strand":"","name":"","value":0.6973999738693237},{"locus":{"start":28140386,"end":28140388,"chr":"chr7"},"strand":"","name":"","value":1.394700050354004},{"locus":{"start":28140454,"end":28140456,"chr":"chr7"},"strand":"","name":"","value":2.4679999351501465},{"locus":{"start":28140763,"end":28140765,"chr":"chr7"},"strand":"","name":"","value":0.7954000234603882},{"locus":{"start":28140784,"end":28140786,"chr":"chr7"},"strand":"","name":"","value":0.822700023651123},{"locus":{"start":28140843,"end":28140845,"chr":"chr7"},"strand":"","name":"","value":0.20569999516010284},{"locus":{"start":28140889,"end":28140891,"chr":"chr7"},"strand":"","name":"","value":4.524600028991699},{"locus":{"start":28140902,"end":28140904,"chr":"chr7"},"strand":"","name":"","value":0.7190999984741211},{"locus":{"start":28140995,"end":28140997,"chr":"chr7"},"strand":"","name":"","value":0.34869998693466187},{"locus":{"start":28141016,"end":28141018,"chr":"chr7"},"strand":"","name":"","value":0.34869998693466187},{"locus":{"start":28141137,"end":28141139,"chr":"chr7"},"strand":"","name":"","value":0.6973999738693237},{"locus":{"start":28141161,"end":28141163,"chr":"chr7"},"strand":"","name":"","value":6.3632001876831055},{"locus":{"start":28141268,"end":28141270,"chr":"chr7"},"strand":"","name":"","value":4.314499855041504},{"locus":{"start":28141272,"end":28141274,"chr":"chr7"},"strand":"","name":"","value":30.225200653076172},{"locus":{"start":28141354,"end":28141356,"chr":"chr7"},"strand":"","name":"","value":0.34869998693466187},{"locus":{"start":28141444,"end":28141446,"chr":"chr7"},"strand":"","name":"","value":19.885000228881836},{"locus":{"start":28141456,"end":28141458,"chr":"chr7"},"strand":"","name":"","value":0.822700023651123},{"locus":{"start":28141461,"end":28141463,"chr":"chr7"},"strand":"","name":"","value":3.496299982070923},{"locus":{"start":28141674,"end":28141676,"chr":"chr7"},"strand":"","name":"","value":1.2339999675750732},{"locus":{"start":28141708,"end":28141710,"chr":"chr7"},"strand":"","name":"","value":0.7190999984741211},{"locus":{"start":28141761,"end":28141763,"chr":"chr7"},"strand":"","name":"","value":6.169899940490723},{"locus":{"start":28141901,"end":28141903,"chr":"chr7"},"strand":"","name":"","value":2.783900022506714},{"locus":{"start":28141925,"end":28141927,"chr":"chr7"},"strand":"","name":"","value":10.077500343322754},{"locus":{"start":28142033,"end":28142035,"chr":"chr7"},"strand":"","name":"","value":6.973499774932861},{"locus":{"start":28142101,"end":28142103,"chr":"chr7"},"strand":"","name":"","value":15.836099624633789},{"locus":{"start":28142200,"end":28142202,"chr":"chr7"},"strand":"","name":"","value":13.573800086975098},{"locus":{"start":28142211,"end":28142213,"chr":"chr7"},"strand":"","name":"","value":29.288799285888672},{"locus":{"start":28142220,"end":28142222,"chr":"chr7"},"strand":"","name":"","value":8.22659969329834},{"locus":{"start":28142317,"end":28142319,"chr":"chr7"},"strand":"","name":"","value":20.22319984436035},{"locus":{"start":28142320,"end":28142322,"chr":"chr7"},"strand":"","name":"","value":1.1930999755859375},{"locus":{"start":28142324,"end":28142326,"chr":"chr7"},"strand":"","name":"","value":6.581299781799316},{"locus":{"start":28142342,"end":28142344,"chr":"chr7"},"strand":"","name":"","value":8.43220043182373},{"locus":{"start":28142521,"end":28142523,"chr":"chr7"},"strand":"","name":"","value":4.318900108337402},{"locus":{"start":28142811,"end":28142813,"chr":"chr7"},"strand":"","name":"","value":0.6169999837875366}],"renderedRefGene":[],"renderedGenCode":[{"locus":{"start":28118112,"end":28118219,"chr":"chr7"},"strand":"-","name":"RNU6-979P","dbRecord":{"_id":"5cd30368021ca1a0383eb90f","chrom":"chr7","txStart":28118112,"txEnd":28118219,"cdsStart":28118112,"cdsEnd":28118219,"strand":"-","name":"RNU6-979P","id":"ENST00000383896.1","transcriptionClass":"nonCoding","exonStarts":"28118112","exonEnds":"28118219","description":"Gene ID:ENSG00000206623.1 Gene Type:snRNA Transcript Type:snRNA Additional Info:RNA, U6 small nuclear 979, pseudogene [Source:HGNC Symbol;Acc:HGNC:47942]"},"id":"ENST00000383896.1","description":"Gene ID:ENSG00000206623.1 Gene Type:snRNA Transcript Type:snRNA Additional Info:RNA, U6 small nuclear 979, pseudogene [Source:HGNC Symbol;Acc:HGNC:47942]","transcriptionClass":"nonCoding","_translated":[{"start":28118112,"end":28118219}],"_utrs":[]}]}